#include "NeuralData.hpp"

namespace NeuralData {

const int input_num = 60;
const int hidden_num = 20;
const int output_num = 9;

const double yMin = -1.0;
const double offset[60] = {0.1875, -84.8125, -179, -13.73, -15.62, -10.33, 0.6875, -84.3125, -179.3125, -17.67, -15.86, -17.23, 0, -86, -179.9375, -25.58, -30.52, -35.66, 0.0625, -86.75, -179.375, -21.97, -25.86, -42.33, 0.0625, -87.625, -179.4375, -17.01, -23.64, -44.65, 0.125, -89.5625, -179.875, -17.05, -25.72, -42.46, 0, -87.9375, -178.875, -14.29, -28.91, -43.54, 0, -88.6875, -178.6875, -13.09, -19.96, -35.77, 0.1875, -87.875, -179.6875, -10.51, -17.61, -25.88, 0.125, -87.625, -178.1875, -5.94, -8.34, -18.4};
const double gain[60] = {0.00283838921412099, 0.0167890870933893, 0.00558171986743415, 0.0744601638123604, 0.0655952771400459, 0.0662251655629139, 0.00284065690190857, 0.0167890870933893, 0.00558561703613196, 0.043535045711798, 0.0569313976658127, 0.0413052457662123, 0.00283813747228381, 0.016268429079817, 0.00557491289198606, 0.0336530371866061, 0.0390625, 0.0303536196691455, 0.00283864100062095, 0.0154365653642065, 0.00558464223385689, 0.04, 0.0404122044857547, 0.0274687542919929, 0.00283788577509755, 0.0142729705619982, 0.00557394182198223, 0.0367647058823529, 0.0364564345607, 0.0259437021662991, 0.00283914470765682, 0.0128, 0.00556424969570509, 0.0337325012649688, 0.0415282392026578, 0.027311211252219, 0.00283838921412099, 0.0134964150147617, 0.00557588430040077, 0.0351246926589392, 0.0355808574986657, 0.0270160745643658, 0.00284065690190857, 0.0133779264214047, 0.00557880055788006, 0.0382409177820268, 0.0459453250631748, 0.0299625468164794, 0.00283788577509755, 0.0137575236457438, 0.00557977332170881, 0.0363438124659277, 0.0485201358563804, 0.0345901072293324, 0.00284090909090909, 0.0145520691223283, 0.00558561703613196, 0.0438692695766616, 0.0906207521522429, 0.0408496732026144};
const double bias_output[9] = {-5.1542876715606045, 1.0137248741550071, -2.5327299829201193, -2.5796953735903969, -2.6800586993829434, 6.6501972634962243, 8.3772081088017565, 3.298878932080465, -4.2640409535014321};
const double bias_hidden[20] = {2.642399377499042, -3.3774743981665187, -3.3082338568183194, -1.66710773196252, 1.8303141122674573, -8.7099928605784989, -3.763471418679718, -0.89634056049131727, 4.9575583984075422, 2.7034762570131501, -0.78869644457802079, -0.96986968127291262, -2.5125280611756691, 1.2988749304709519, 3.9495665700033959, 2.803486332725865, 7.4666286672722757, -3.4556390790900648, 9.2393811437777682, -0.067483165198386361};
static const double _weights_output[9][20] = {{-4.3685593576725896, 1.5547839411029611, 10.334203746323068, -4.4870476242564976, 1.725515700640776, 2.068024642077364, -1.8327522655126385, 4.2566795676206128, 0.4813858289859812, -0.61349821475084865, 1.8425474317126698, 7.953585206293651, -2.0030616016503817, -4.4587838652080292, -4.0281625087448711, 3.2376171598457257, -1.089495259926621, 6.2566221113403708, -6.3379107101209771, 3.1414855946538571}, {-2.6929077734794635, 0.80260569002105564, 2.1281686669374555, -6.8860796552441963, 4.0300055215413844, -2.3042882821700705, -1.3909283509193306, 0.70714953075163467, 1.8422492234161723, -0.12547321403133629, 4.0270051740327979, -6.6320928486887913, 7.7656620514917813, -0.97455467569857257, 2.3230806677437115, 4.3707358613582441, 5.039914656398631, -2.2776449245002612, 3.2531963849255354, -2.6091493662693885}, {0.79567610404888867, 4.4819955573599675, -1.8746887723630838, 1.457470942437088, -1.4361180018577593, 10.237724431093305, 0.048290048806265348, 7.8645418118951556, -9.1412483301451584, -3.6303918887025515, 3.6018276251856847, 0.11967840360461413, 1.4374444885171207, 0.40102499263449831, -7.4287951115764015, -3.0379330058375587, -9.9299127330594619, 0.44962605408138967, -7.4314144223877578, -1.4840762427418603}, {4.4314979847711591, -0.40952512325822693, -9.3029864935780555, -8.5162304482931557, 0.5210999321260309, -2.7403187462409488, -0.12626646250674392, 2.7574347212212182, 5.0359871203316064, 1.6167120749834196, -3.974800071258088, 3.3923538529788604, -4.9512766677521123, 4.043753469450178, 3.8663798324335206, 3.3060620008790735, 0.44547395484467867, -2.2379377565964806, 8.0467783969323659, -1.2752102530384113}, {4.3577980336661239, -5.6886936528440408, -0.18398144271855385, 7.6529073400932877, 2.8237604547857624, -2.2221176407747065, -1.9749984019497526, 3.7440586445159267, -3.1415175647853202, -2.383874037959552, -5.0207311295111197, -1.08504349159027, -0.89509423344725492, 3.2273507270134436, -6.0097338242720957, -0.64648533381808648, 7.7972897685313303, -3.5850455120245472, 2.379827803697502, -0.22295303105902808}, {-7.0120351740928832, 0.23174454502922137, -4.1729030079085305, 6.8869374996675159, -4.2642869927794997, -8.5891948414270143, -3.0853288508234402, -0.91339454021760003, 4.058680035708039, -8.0536572332116876, 4.4998499802826801, -5.3369515667417762, -4.4535528495583625, 1.1214293805121653, 1.5217658003674446, 2.8407180533151544, -2.9964898106726516, -0.69369036726482747, 0.58074171645315553, 0.27693352541998478}, {7.0546988052781741, 3.3773712684845489, 5.8814725405904396, -6.1265378367049026, -4.0470460531930996, 2.2380740796039404, 3.9268031280713518, -1.5762056790793451, -3.8047876649708439, 8.405012785227667, 2.6633937571654283, 3.6851416800060623, 1.0754217824964578, 2.5773976132165926, 1.2985720730938926, -6.0896677109190271, 2.1667375808422502, -4.6521449709727802, 4.4596080146741084, 8.1896459366688941}, {-2.8331419879902997, -8.2965075553213072, -3.8175351482474262, 3.6000697901344227, -2.7209238863191665, 0.6907127477932713, 9.4417381016390305, -13.033198179984415, 1.4363168496389971, 2.7832700971237334, -5.3250966888815112, -2.3439907180718915, -0.027418815018166027, -11.577015953156888, -1.6010592676746374, 2.4543169106254039, -0.16053168408040253, 11.696400931141419, -0.37015103013449829, -2.5420808328635616}, {1.6217248247459193, 6.0778169956288153, 1.352492582875412, 7.2576796881802457, 5.164530265706146, 4.1834667551401834, -4.1985063718148474, -1.0621843133817466, 5.3489533593072185, 2.5811357604807368, -0.09873081697585305, 0.58980211492146439, 0.50288304291458008, 5.9814954148227013, 5.6553661570480385, -3.9899222733750168, -0.27476708701685149, -3.2768512560990852, -3.6818212329509898, -2.9177840861954989}};
const double* weights_output[9] = {
	_weights_output[0], _weights_output[1], _weights_output[2],
  _weights_output[3], _weights_output[4], _weights_output[5],
  _weights_output[6], _weights_output[7], _weights_output[8]
};
static const double _weights_hidden[20][60] = {{0.61228048599583651, -0.38084271774792139, -0.55114685601893776, -0.17804951913511058, -0.21434744394001823, 2.5681893401879554, 0.18879292076379831, -0.16668082734596915, -0.4085352566369978, 2.677455264104891, -0.18830092856903322, 4.7590194658929006, -0.53163700973541328, -0.59911654613355492, 1.3906919422601347, -3.5667096622797865, 2.3847392262662406, 1.2712715181845033, -0.8781579337262384, 0.87706162467795956, 0.98450655912331775, -2.2276719770205875, 6.918198239744954, 0.88549125931665518, -0.14203682873969301, 0.62703155812531941, -2.2018290474362074, -2.3716460842064238, 1.5241298744292435, 1.7006482455814123, 0.73586243253922934, 0.55521573800728108, 1.5545869357398223, 0.34409011138757223, -2.0895109984647577, -1.4202734409844104, 1.6554823188441832, 1.1572201845532641, 1.2106681119957876, 0.097209427104956336, -2.3361671620411362, -1.8643408973993902, 0.2351364801262262, 0.45731483173105286, 0.5208085171950847, 0.022302577122770409, -2.5128626496427127, -2.1662334402168706, -0.17075431201228181, -0.41966117868491809, -1.5025460201887801, -0.51416534649622803, -0.6029576742535222, -0.7277726762339779, -1.4575448640719353, -1.2734314793148496, -1.244852615241145, -2.3988784943920023, 1.5990873030938348, -3.4080779452602963}, {1.4295927760628528, -2.6121519404415166, 0.17855577686986598, -2.1843466122875479, -1.1337307326231383, -0.80816042965633217, -2.2078604036384832, -1.9090664662428787, -0.14856784887086588, -2.1410973790037353, -1.184730833821213, 0.66419781021292912, 0.16564453969871074, -3.9612091693180425, 2.9762100960927431, -1.0589999070155518, -0.91459318134895584, 2.6280944126058268, 1.5479615434309779, 0.67169035518001607, 1.0010806334765232, -4.8009702137521852, 1.0244960530207785, 3.0190016451585211, 0.019337904175697244, 1.2334447051420998, -0.0092210267828425133, -3.8928592756721145, 0.74868628301735407, 2.6762332695459197, 0.96003170025592122, 3.3881700218705406, 2.1908184516694171, -2.1170583213666374, 2.4315927176438477, 2.0722623287457411, -1.7639996270646665, -0.32840473245010704, 1.6732943774253592, 0.42257221329368144, 3.1574536604624091, -1.9176925933626363, -0.70714277436889883, -0.73678900471111386, 1.1572504099964942, -0.75308363529071032, 2.3171296366912117, 0.040091891839213939, -0.6959681146711999, 0.34781736249135209, 0.39088489589514913, 0.18805846523661174, 2.8965663624573246, 0.47367989572755304, 1.3765163969871645, 2.9253293222304424, -2.5166205439090135, -1.5715665210157175, 1.6192739182303246, -0.80081650227931156}, {-0.74369144098597462, 1.7553800499867922, 0.097493702468666801, 1.4786098146860893, 1.2408887706073433, 1.4246270691986314, 1.1087998305213396, 1.0321683362218246, -1.2470692570330852, 0.77067903938572779, 4.2384850201380742, 2.9773446425654031, -0.22217607837631204, 0.1463512627043958, -2.4227300335736857, -2.680079880377054, 1.7853593468005007, 3.9014022778117554, -0.70719399347953338, 0.11424873745871646, -1.2413797854965885, -4.5590681335223824, -0.062359571936689992, 2.2631737695635383, -0.0055152821493925971, 0.39411343814058597, -0.30804239037198594, -2.438856309859244, -1.0064725985409022, -0.19978841308029144, 0.9488171026051091, 1.6285447015124561, 0.67741079414079286, -0.20654486148384676, -2.133942754891033, -2.1757768222645368, -1.2183912079671622, 0.74247560529830314, 0.4867117257536161, -0.34783398881625455, -1.8745296429297102, -1.6778142432880541, 0.1474545511126204, -1.0623201606130201, 1.8315880510919089, -0.74732057649451322, -4.3897552686729551, -1.4151026902278951, -1.2069661901123987, -2.5715696069228984, 2.8963869178766553, -1.6598967364463977, -4.8133840705868769, 0.86979917708263133, 1.9729628661883933, -2.437990399475948, 3.0871790909571426, -0.84857507066930038, -2.9703346772124579, 1.2769624853187798}, {-1.603465303883838, 1.867880606243856, -5.0666898806199354, -0.19717770054848247, 2.1883873274607955, 0.52653724370091282, 1.7869899493070343, 1.1478839126446052, -1.9814078249804195, 3.2156253504371066, 2.7808863425520345, -3.630411689953148, 0.59610432490867915, -0.37835240516522056, -1.779963364415893, 2.7841451952967549, 0.029365668585502502, -2.722591449119284, -0.15145694864084258, -1.5231552437539659, 0.078997484367375914, 4.8121145653643902, 0.74205570050846803, -0.061035860643495268, -0.17431343868873792, -1.1002094608295581, 1.2493048920530887, 1.6048902086750478, -1.8458302742506387, 0.93484858567280826, -0.80420041956778554, -0.99377355008509927, 2.9939138342342329, 2.3057362850957297, -2.9930043475798849, 0.69520861649868426, 1.050378455013069, -0.97223360282140181, 3.700579786750708, 1.1215900271987, -4.269050852929408, 1.590948590529073, -0.9544123073029086, 0.1085485437371578, 2.8076470009708685, 0.89187109087082472, -2.7044257555880651, 0.91681207656553398, -0.69391891308180742, 0.66007530927975278, 2.728479503976911, -0.18364737527648692, -3.2857188763671243, 2.4263075794208788, 1.0332586302545281, 2.7457234157679324, 2.0030538545040426, -1.9303226430900113, -3.6581397892732208, 1.6998960813829362}, {0.1543654292353151, -0.14652841935072725, -0.37742076041389688, 0.91482380334746849, -2.1559621541165406, 0.83106332698682939, 0.25331179048180846, -1.4558698087983122, 1.7700263657765025, 2.1614094445265764, -0.64947313713180732, -1.625710052833977, 0.061845919409780625, -4.2105291831926923, 1.0796689179021413, 1.8358132001841529, 0.55962640356819671, -2.5849431035703798, 1.141340197627539, -4.1311156066882502, -1.1021001402751702, -0.28103713067388691, 0.65617394331069856, -0.38799682221191528, -0.23468110237555329, -2.1791949568673377, 0.087350513523379178, -0.73957215349135597, 2.3695358125347874, 0.87932694744296525, 0.98088874487626976, 0.22755840453146806, 0.20539619056259503, -1.0754463323406342, 1.0552097186058513, 1.3607003712698393, -0.82290457283237173, 0.60347639495079775, 0.19846111684721376, -1.3077294723327499, -0.81205918336067662, 2.0921928182985416, -0.88554453829746871, 0.57407950301948552, 0.20679986891954746, -1.7317537711922364, -0.82188489558667965, 0.082637092365484388, -0.36895548548780377, 1.6662632370181938, 0.02711769619390687, 0.18560772914178916, -1.4614704136594359, -0.75591827685398716, 0.044270288126673232, 3.3343332083529327, -1.2887737795475713, -0.1059000751107694, -1.4071108126160283, 1.6123221621394697}, {2.8797026865849542, -0.72148789045570838, -1.9371447849394818, 1.3328832048431682, -0.16107366801375619, 1.4173097580377836, 1.9356509191094586, 0.060755473308018233, -1.8939261158239975, 3.0591117595308832, 1.8914357809502613, 2.4798028201623237, -1.1837609531093563, 2.3616494070792937, -1.3495788303865921, -0.92848809468674665, 1.904318351502682, 1.4447227143994488, -1.2004148845673717, 1.3579288377103222, 0.061390223875941702, 1.016197421456658, 0.68113359000551699, 0.52367825064568696, -1.0427361645278821, -1.1081329482699458, 0.83051645175857258, -0.97891605259837322, 0.010386711019057162, 0.84225503872875829, 1.0872179739990981, -0.17249732258539663, 0.77592482406541829, -2.7774611048833613, 1.4602560782315157, -2.0012053488188726, 1.2505001810384941, -0.53537733145303312, 1.2635449698376282, -3.531436469051846, -0.62948817796483902, -2.2797765486191763, -1.1006354450298559, -0.39238690673801491, 1.0218136075523863, -5.0866364908566029, -0.50819306604034942, -2.5600221861218349, -1.0468355521758252, 0.22765434788673305, 1.3397652831896558, -4.0727241638074423, -0.69132637347459769, 1.1511874780155573, -1.5606053702443092, -0.5482211882592275, 0.5322109817068118, -2.7211852117245829, -0.023838456425853079, -0.090445976741768644}, {-0.561309770573857, 4.3800465767570769, -0.16319672582831141, 1.1551659684179334, 0.35028712892082664, 0.54669592880537121, -0.58777849893886325, 4.60915948376058, 0.99280619663739267, -0.20034607184810727, 0.1955443820651033, -2.9782438980396737, -1.3009321646902741, 5.6626146258255465, 3.9241738034757692, 0.7392128294014344, 0.20670368178852694, 0.22038061831760994, -1.4946696734380585, -0.31947227330480116, -1.4220186195053117, 2.1093567981827923, -0.45833939959776127, -0.59820893359789729, 0.21754029264312333, -1.5518172744181633, -3.5276573862948237, -0.062455576653324685, -2.8289565421682474, -1.5954325913166574, -0.2422225379774669, -1.8589684559493338, -3.2756485975920113, -0.33239773290062496, 0.096682307419713676, -0.67992264962664384, 0.58826237074898158, -0.018574450089807695, -0.95350009956201343, -1.8491171531826534, -2.6219538487754011, -1.4215178520407259, 1.5149898979941192, 0.29960096086601806, 0.19814387834238256, -0.53680685296363495, -1.1114881911032064, -1.1533534737056161, 0.649851169278573, 0.65439529876345182, 0.78507669876435171, -0.3884224783827806, -0.54999622043536844, 0.38045448574710683, 1.2590161377097902, -1.4798373035065471, 1.663169119331827, 1.7194767657291785, 1.2653741798819222, 0.11028585237723308}, {0.20964866551927316, 1.0813085835792593, -4.584350811984061, 1.6536671641730101, 1.3856955279828107, 0.83558922872235075, -0.18155755070248936, 1.0450405982054398, -2.8990254089273955, 2.7769614118702237, 1.4738550577423695, 1.0139013907131409, 0.31534101493571692, 1.1007726054328462, 1.2480393483929568, -0.26081415973078953, -1.174799201609779, 0.54433860709695459, -0.18744137428055063, 1.1852783435088807, 3.6296502722785822, 1.1150183064568291, -0.71710696664337203, 0.77754305298317994, 0.029570156824030892, 0.76905583625123008, 2.8842141231847296, -0.14942679245442531, -1.0684981009203689, 1.6808447418896135, 0.079772453185109796, 0.42467799874535594, 2.3865469328014965, -1.753802741563252, 0.89212423797162421, -0.20624390477318341, -0.047410546596990552, 0.79449387188763065, 2.6066681304841159, -0.52536420011927287, 0.43146222071604518, -0.34099698126676858, 0.30997516222208338, 0.70035375380676568, 2.1331403007082601, -1.4856189605131302, 0.4395397738830239, -0.37566786350279008, 0.21387678517440972, 0.21134610626429692, 1.424598777405685, -1.1590414780438756, 1.283506773858806, -0.16999001487784204, -0.67665740242424988, -0.6731437261240113, 2.4267178216292034, -0.9077935171259085, -1.5353044485894736, -0.68138123641657411}, {-0.21362070628396504, 1.2119179571877372, -0.98946316715427762, -4.9786623963123482, -3.4541813505488692, -1.6201984161196707, -0.52101298543405494, 1.0093548284169602, -1.0063684822654819, -3.0197135559946022, -3.3780091445942948, -2.2989216175332632, -0.79045733070763402, -0.4462021982570224, -0.87341816733438882, -0.81186967518931474, -1.979407625541002, -2.0967888857986123, -0.36163338694659597, 0.55221914954407525, -0.20400577610290849, -2.7451513106046042, 0.99283674726364435, -1.0568407606350974, -0.19903281819577046, 1.6430754276273503, 1.6606879772236578, 1.043939232019865, 0.33009947684554897, -0.096074703316600785, 0.72604655062751244, 0.37482420530550786, 1.4095443019046967, 1.0159790421565851, -0.18355779164934966, -0.28940213265821085, 0.0016805492656818619, -0.10732364413989764, 1.3732981622248508, 2.782961178683665, -0.68716521803004704, -0.52924601997684706, 0.51036299337395585, 0.27640409810502314, 0.89063723439734299, 2.3199319976866515, 0.95607380283097609, 0.82229961568978693, 0.18425934763449348, 0.78524243772259117, 1.6320450267863043, 3.003219598578696, 1.151718702547335, -1.0216316887826939, 0.79413668796470827, 2.1330725492702078, 1.6126834326635671, 3.8161750574952062, 1.4300171706120341, -0.62535745651086427}, {-1.2976150055229658, -2.6094933108890648, -0.82921327725009919, -3.8870255604420394, 0.9618373734055079, 2.639575770129845, -0.28626435988926668, -1.4217178196603191, -0.20537350308773777, -3.6600881930485945, -0.68885480416077693, 4.6616304873377539, 0.25606230631346932, -0.095850074806651961, 1.2210808258948411, -0.16698212299992407, -1.6804547526073252, 3.2975999265197178, -0.46392653841181164, 0.71427511904206853, 1.428502372479276, -0.098287501376328454, 0.79833362296213339, 1.7776474388436807, -0.64133639320849767, -0.24433038983115019, 1.3442292120580215, -0.92626705688617106, 0.29249295086726163, 0.84123687161940885, 0.29333585863008099, -0.38427037408187614, 0.88895915617758559, -1.3849897501229462, 1.4493346299715162, -1.4813347711190155, -0.50932828431222976, 0.65982771019400976, 0.093713293992806479, -0.31829297931046713, 0.80966563771572098, -1.2755968670994622, 1.4780533598898151, -0.38916083342068247, 0.71794530693637926, 0.21949076418752797, 1.3159803395064127, -0.83282841124238582, 0.36723226634240136, -1.7037630339978205, 0.91217945793365152, 0.99723724900622879, -0.095974698453227467, -0.80134957873440982, 1.1347521004121943, -1.7886845970883329, 0.93597019824021077, 0.094033633264336905, -0.26290542938407657, -2.3885736795766808}, {1.0096530655788636, 1.7403543905471115, -2.0697663194157849, -5.1332908568095208, 1.338754265231755, 2.199217326608514, -0.63150205436147622, 0.92339366597879724, -2.1626112683990537, -1.7367193400351224, -0.54500292877616618, 3.0958309950842375, -0.04234011925558237, 0.42145233304710583, -1.2161651691183253, 1.0317107150020848, 0.39970874192045075, 0.80009551608738572, -0.44708782196259772, 0.01112989852500571, -1.4493279299632669, 3.0647932732914511, 0.080639836015585956, -0.57786556907943154, -0.12928008629614066, -0.84494815940882073, -1.111963685181621, 1.9475312726586267, -1.080481237348536, 0.22205563968496755, 0.44665574775645167, -0.50680056513038674, 0.49317124152021335, -0.29879048370016614, -0.87112076323284537, 0.95768153035186743, 0.19751186541789623, 0.13377354720563631, -0.47824088680840149, -0.60118523580068628, 0.023571749399441393, -0.4282539147695068, -0.24308029138562545, -0.014207562396783158, -0.7973435972065489, 0.53561194273096235, -0.61208915543148024, 1.1771356265662749, -0.03913671312553596, 0.69316192354438011, -0.56675064319335045, 1.2464030181321253, -0.25932851919488542, 1.5998302344312383, 0.03154837033593981, -0.038372100729304762, -1.2194433625233303, 0.13650791095750134, -0.026426501031157339, -0.60797235081074674}, {2.3378894195302902, 1.5601285881767626, 1.7163193915751285, -3.4967858474705529, 1.3106005512526191, 2.3916287659304056, 1.2338809114241935, 1.3042844963001965, 0.44430478592743039, 6.0502154275978155, -2.6736397419037483, 4.2008111325893678, -0.22677914160992854, 0.70978473532125474, 1.2605105170524293, 3.5641272751772197, -2.3305222252764501, 1.5985778542531808, -1.1657039737375121, 1.3970778699334838, 1.9582902407993448, 2.159303346340411, -1.0759719269869104, -0.43885269589048947, -1.3595778591437899, 0.97036815841639668, -2.2282387231518341, 1.9526685139176918, -0.13974390455716873, -0.072577688203861582, 0.54720530381569266, -0.30938116290592704, -0.74547231879361064, -0.43653887020171034, 2.2174842643727994, -0.18024495796296289, -1.259783215631527, -0.38631400094278356, -0.014738889284029996, -3.5264348086827537, 2.2479722542415868, -1.8641310519633754, -0.91737397457104752, -1.6360203250131524, -0.5945292240320309, -3.8888831756728597, 1.3121170877522053, -0.44844287339409339, 0.73263533772510658, -2.0485252151427806, -0.90040373274098184, -2.3415583499112733, 1.1426907503819568, -0.84118156811355627, -0.1244230245462748, -2.452416360694285, -1.3030581485116066, -1.2104922268628415, -0.91679951205075905, -1.9404792166352556}, {-0.07611179813103755, -0.16832793634646243, 0.29731405374940811, -7.6383259811862887, 1.4835614304798397, 3.4000191290885393, -0.30107413524093496, -0.61378038858226669, 1.1498172052574658, -4.9621067101318737, -0.67743706957906225, 1.9980189520914244, -0.35298914334822812, 0.89616520695982427, 0.17775976370675439, -3.5859556927983158, 2.5869332354371735, 0.34299338932958118, -0.078373237288038716, 0.13250124653132031, -0.28209681919825402, -2.5930996625950979, 0.78110002983361526, 1.1635619414992564, 0.22052571217314054, -0.88268979125994629, -1.2349645599859596, -0.21337055904386681, 0.11978248089687051, 0.78246620033072256, -0.10825543187820756, -0.58115845022343104, -1.0519943262011495, -0.83137687170474295, -0.65117067447528065, -0.53737020626848209, 1.076561748884715, -0.39757081434679292, -0.68808368162036726, 0.30000254162657064, -0.71948721247031555, -0.17860834984014359, -0.23221162181874741, 0.62369206265073696, -0.22809590079574227, 0.084962734038771803, -0.19490789072907969, 0.28497273123395622, -0.97744654730249181, 0.86434752483517163, 0.8896115936851765, -0.47068981925630904, -1.2059784927901791, 0.71614833531461619, 0.81688155379032112, 0.087581733201463688, -1.248661430531318, -0.4432475387821187, 1.4224813697988503, -0.29793124792973763}, {-0.65189300203878497, 1.148500888833232, 0.91270500017245615, -0.12864188461758963, -3.8091719727182451, 0.43996925231732864, -2.7736015035509118, 2.8272202947168257, -0.32567500988765274, 6.47022961055454, -0.47263139161708423, 4.16892841698201, 0.78350463152810013, -0.41086346466297707, 0.16278388295702514, 4.3598554944160348, 0.19285332090759372, 2.3884486010231409, 0.60971501509572423, -0.089875517639770391, 0.95740385471970246, 2.223509378897051, -0.22112909510543807, 4.9916071317400155, 0.61961772785510327, 0.27803017731264063, -3.275949735081789, 1.058247151143662, -2.8359290674283453, 1.0844843778202593, -1.1647268561578277, -1.0179124834766047, 0.50694201089932511, 3.7318827518309892, 3.3974481605580635, -0.042402482072866024, -0.24214159407370178, -3.6766210960139833, 1.6920847918901996, 1.1189226305283972, 1.8614540244133135, -0.8972854913655689, 0.53145915582615755, -5.3903526961216102, 3.1438850408464067, -0.18841661839255086, -0.94081551575763178, 1.120800329671793, 1.1445648296431403, -4.4370013112596043, 0.74083769355204143, 0.098572149988451915, -2.5847999542445517, -1.4444425766228919, 1.1360413243045278, -0.60985047993167196, -1.4665367603372303, -1.5867503878033506, -2.4886347324192868, 0.56461084492285785}, {2.3571066773774088, -1.467319538270107, 0.52917985583906346, 2.5324205378951299, -2.3387402653948315, -0.54296436264681203, 0.84324786604794244, 0.62108519006052665, -0.34459641630292837, -0.35955560826770105, -1.6546679509802706, -1.4580127490934396, 1.1505777626377593, 0.93479291495085148, -1.943308962123014, 0.79667436222067589, -0.24764167698493206, -3.9368897265263634, 0.064457326185921066, 0.0097179049078391349, -0.80837269924698507, 1.4150336459940922, -0.31193784207765829, -2.4341444985047631, -0.24503071322105016, -0.59215910723721399, 2.346758785114273, 1.4743080967583475, 0.72958965139843435, -0.85249692606077776, 0.29320589738756986, -2.0243224018224573, 2.7877525737315834, 2.6007030598485801, 1.4140452739482163, 0.051523042545090811, -0.11833657969745295, -2.1450372355928371, 2.3465374637680898, 1.8184643261867774, 1.8263150626767259, -0.62225417062856692, -0.80154952311734329, 0.09703007570973303, 1.7025114484017878, 1.9943072181252304, 3.2822800044268501, 1.5245119310338997, -1.39212024911192, 1.140230330847348, 0.52505671131805953, 1.0975933219318872, 1.4001924125224106, -0.83044350283822777, -2.105211594015953, 1.6693070970039634, 0.099807563392365059, 0.95623502169009733, -0.19893060474700866, -2.2611039876098431}, {0.34863784472843562, -1.2518288672746207, 2.2763168481870357, 0.46693518578975007, -1.0104603866719424, -2.1966967923673906, 0.49008760886350533, -1.1932812772193444, -0.27842997352161108, -4.2645444206621876, -0.36150531478951092, -4.4000911454645788, -0.57646312340317196, 0.34496071046753463, -3.1907129271200314, 0.67161940947850296, 0.25875446691405291, -1.7682037508893844, -0.0023472084053308669, -0.76749105953724028, -1.187070175747543, 0.040539978585389158, 1.6705709152270614, -2.7529340413991172, 0.12047483259058729, -1.6534903813633384, 0.79516227161799602, -0.46223116461173946, -0.11934314567115267, 0.35363253961981905, -0.61875711355253382, -0.94276452298816038, -0.50093873687311286, -0.11686054160973372, 2.0681336076403909, 0.59651203843053602, -0.017025486022393496, 0.099334915729806808, -0.49623109711878388, 1.2594389911977455, -0.84161602649075362, 0.35866982362231331, -0.056415408650244518, 1.2391190493049107, -0.42561735700420389, 1.5744143969172468, 1.6988620297131283, -0.69474438443262665, 0.61592450068592619, 1.5701468069591173, 0.88301084979185707, 1.0696068987617682, 1.7271920784678718, -0.080224651603714128, -0.36984882952669934, 0.30799182702048339, 0.95364501908270649, 2.2297096849919038, 0.90792253105327947, 0.044163345239346806}, {-0.94739261162930499, -1.3253136061859654, -2.9713409950134912, -3.8282980484282283, 5.0453521702458648, -0.59370019720914502, 2.255662575271284, 0.66556990031442653, -0.59858333333309655, -2.3784290668543395, 3.379359263291843, -0.64967463817973115, -0.66544843923543384, 0.29495602012667088, 1.5371614940361187, -1.5353662313808187, 2.4181515997404115, 0.050604175748744477, -0.16955279051051528, 0.19389925098262939, 1.6424991231922652, -0.67663996958654316, 0.38009230470264072, 3.4249995191790918, 0.83455576798968678, 1.455381536018753, 0.20607256335632074, 0.12160117300157317, -0.18114650703150195, 1.4047473609224692, -1.1994605473129845, 0.81766762865956366, 0.78622271427143364, 2.2771578733039242, -2.1599816641743752, -2.0372053795129328, 0.9651989641730625, -0.31953981421013494, -0.0073224180493748521, 2.0380043194565221, -1.9112094513084104, -1.9669696323164558, 0.018298338600224433, -1.4888563389406044, -0.52830458151537707, 5.0624771855481061, -2.1062690350061115, -1.1601286823190478, -1.4006118392755271, -1.837390898325546, -0.59865945806010601, 4.7445113086206367, -2.531716315850062, -0.75634449589061792, 0.33920537689830316, 1.1704498376214263, -0.75742701981627703, 2.3739165130145952, 0.24853067097269671, 0.26417132926849768}, {0.18993462899151772, -1.1219796787347784, -4.3426319516338205, -1.0560679835496227, -0.99975339669400054, 1.2946079668294637, -0.091305935935440341, -1.8173978268862876, -0.6530033353699759, -2.9280234499093019, 0.39465930347929867, -0.40354959711853455, -1.1993972987226225, 0.042824261262419214, 0.8871753974023886, -0.70537548673735639, 3.2879433452945861, -1.3424737072241064, -0.82155655165211194, -1.5038901170525121, 1.0501251486689172, 2.0353996774026357, -1.6443974174518767, -3.1073142888591887, -1.0742733816293777, -0.34446927052600329, 1.1440103895168239, 3.1277507136251463, -0.26356914735548592, -0.39494907494458192, 0.057416702801863582, -0.73347927991999118, 0.15832748588078382, -1.1122696239140231, -0.5917838725358564, -1.4123466701323091, 0.10654872554621857, 0.89560185097670808, 1.1921061510248212, -0.0089675430801177229, -1.914319023907274, 0.10479674122787742, 1.1967601586382284, 1.0266967318868836, 2.0200970216463836, -1.0006899583642332, -0.0023027992943501514, -0.85321480089919022, 1.3313645461553938, 0.34328961700431265, 3.5858001230624437, -0.74484718521361393, -1.5079863691451887, 0.44357543891003209, 0.47294471005414385, -3.4838572179038589, 5.3467337669822541, 1.8090706947682853, -1.8316067067415742, 0.53030298569763445}, {1.4433373495737427, -0.18609984738098656, -1.2554111184291263, 2.3985545899100296, -2.2695983531998536, 1.1522682849608767, 1.4161355722682627, 0.44431075916040447, -0.95900352956946144, -0.17992979089706013, 0.58611841112754781, 3.9141627196680107, 0.18676908252682825, 0.93385863572219119, 1.4894608655087864, 1.6381170324299417, -1.3449856442340868, 0.2625447956704941, -0.81937071454552957, -0.91846701513373019, 0.51393251841292309, 1.4634218453292396, -2.3987393534928083, -1.2500987885362251, -0.3873696313684924, -0.29390109749245402, 0.82196920086071867, 1.3102574506989133, -1.9381544518256886, -1.3535729904083045, -0.87379672414996934, -1.3526150063080062, 0.35307217043604627, 2.5778148678805057, -1.0225007211385067, -1.3311649413095361, 1.0517618599758181, 0.96278112455903775, 0.047958174086891195, 2.8711707273765428, 1.6220021877202331, -2.1014618173808812, 0.033277247624562196, 1.464765316682666, 0.0037780528974085074, 2.8751588397639978, 2.4739513694301092, -0.057966684691115954, -0.20721550492602933, 1.4775218413993996, -0.6179329839180524, 1.9123388668211541, 2.6910417355172416, -0.27480758896308793, -1.9839187479383715, -0.07859760085188261, 1.4525657305308191, 2.2482703522210801, 1.709569586357939, -3.6315709658200124}, {-0.05549776418287216, -0.1305350166568027, 3.8950969259432382, 0.72321177555156602, 0.045894783281600314, -0.65513741692752603, -0.23279447066632669, 0.014288747054265083, 1.7289332658891752, 0.43927931836634215, -1.322945629279574, 1.7289669947991688, 0.16659839526944575, -0.0717576920787244, 1.6624237618793127, 1.0426116571567197, -0.62367484065177425, 0.69825759569808121, 0.31229236147924216, -0.38963204893274211, 2.2277440079913222, 1.4302523603361927, -0.9866940130821491, 1.6653706720709787, 0.15552236087841281, -0.082230610780340899, 0.83402730406689751, 0.7947488926099564, -0.40065813052335503, 0.63021962389582409, 0.020246820903145238, -1.1043436653573113, 0.75808434242180567, 1.603974751170137, 0.0059439523226239082, 0.13128410390039202, -0.14394244547432772, -1.7636511396012382, 0.43173095064807115, 1.9455598070422107, 0.68059765772325509, -1.0864204221787468, -0.089590577701558177, -1.8494793979993354, 0.72685116257215021, 1.4387830659380323, 0.12536332024124491, -1.0175320150021656, -0.12128684482030967, -1.5610303514203785, 0.39176975258860508, 0.19470180697474365, 1.0111302616544258, -0.23780701541386143, -0.12080558226527949, -1.1469266529053446, 0.44082582006980131, -0.76749502020423688, 0.61450222857408676, -1.1590431296036376}};
const double* weights_hidden[20] = {
  _weights_hidden[0], _weights_hidden[1], _weights_hidden[2], _weights_hidden[3], _weights_hidden[4],
  _weights_hidden[5], _weights_hidden[6], _weights_hidden[7], _weights_hidden[8], _weights_hidden[9],
  _weights_hidden[10], _weights_hidden[11], _weights_hidden[12], _weights_hidden[13], _weights_hidden[14],
  _weights_hidden[15], _weights_hidden[16], _weights_hidden[17], _weights_hidden[18], _weights_hidden[19]
};
};
