#include "NeuralData.hpp"

namespace NeuralData {

// size of the layers in the network
// number of inputs into the network (6values * 10datasets)
const int input_num = 60;

// number of neurons in the 'hidden' layer (i.e. first layer)
const int hidden_num = 20;

// number of neurons in the output layer
const int output_num = 9;
const double yMin = -1.0;

// constants added to each input when they're introduced to the network
const double offset[60] = {0.1875, -84.8125, -179, -13.73, -15.62, -10.33, 0.6875, -84.3125, -179.3125, -17.67, -15.86, -17.23, 0, -86, -179.9375, -25.58, -30.52, -35.66, 0.0625, -86.75, -179.375, -21.97, -25.86, -42.33, 0.0625, -87.625, -179.4375, -17.01, -23.64, -44.65, 0.125, -89.5625, -179.875, -17.05, -25.72, -42.46, 0, -87.9375, -178.875, -14.29, -28.91, -43.54, 0, -88.6875, -178.6875, -13.09, -19.96, -35.77, 0.1875, -87.875, -179.6875, -10.51, -17.61, -25.88, 0.125, -87.625, -178.1875, -5.94, -8.34, -18.4};
const double gain[60] = {0.00556134862704206, 0.0167890870933893, 0.00558171986743415, 0.0744601638123604, 0.0655952771400459, 0.0662251655629139, 0.00557006092254134, 0.0167890870933893, 0.00558561703613196, 0.043535045711798, 0.0569313976658127, 0.0413052457662123, 0.00556038227628149, 0.016268429079817, 0.00557491289198606, 0.0336530371866061, 0.0390625, 0.0303536196691455, 0.00556231531374935, 0.0154365653642065, 0.00558464223385689, 0.04, 0.0404122044857547, 0.0274687542919929, 0.00555941626129256, 0.0142729705619982, 0.00557394182198223, 0.0367647058823529, 0.0364564345607, 0.0259437021662991, 0.00556424969570509, 0.0128, 0.00556424969570509, 0.0337325012649688, 0.0415282392026578, 0.027311211252219, 0.00556134862704206, 0.0134964150147617, 0.00557588430040077, 0.0351246926589392, 0.0355808574986657, 0.0270160745643658, 0.00557006092254134, 0.0133779264214047, 0.00557880055788006, 0.0382409177820268, 0.0459453250631748, 0.0299625468164794, 0.00555941626129256, 0.0137575236457438, 0.00557977332170881, 0.0363438124659277, 0.0485201358563804, 0.0345901072293324, 0.00557103064066852, 0.0145520691223283, 0.00558561703613196, 0.0438692695766616, 0.0906207521522429, 0.0408496732026144};
const double bias_output[9] = {-1.7070115242778763, -0.4739137182959367, -0.95140217292174367, 0.55547937233381484, -0.30478320772526768, 2.5340751981502718, 1.2773259918884887, 2.2342156651436249, -1.1178273687636013};
const double bias_hidden[20] = {0.66226916315647233, 0.63176337127836169, 0.35724752419721001, -0.10481877764601086, 1.1678962876795747, -0.32154798162832221, -1.7326930202719448, 0.53566422956012183, 1.5823506794363988, -1.0461868544763278, -1.4708132696222556, -0.3713788227235808, 0.67963207713640739, -2.3049173468464441, -0.92333559328251158, -0.61034859592197532, 1.8556240070721421, -1.8655678837268137, 1.7207401622583773, -0.4298750859413249};
static const double _weights_output[9][20] = {{-0.72705390391439118, 0.73589966260354256, 1.1371319706595409, 1.9851349196642032, -0.85476492035364005, -0.76042771481022531, -1.3647293850131961, 0.34351901451282091, -1.7398948303529231, 3.1620389259115371, 1.1313541884942695, -0.7852283503416293, 0.62064424805187746, -0.04124652616990683, -0.97443244408647733, 1.3139262593822896, -0.39475272605091866, 1.7678704397715022, -2.3011287930048803, -1.4266287597329894}, {-1.8715793761256669, -1.9477384133277729, -1.3684304660852242, 1.2027385440248826, 1.1593243434815474, -2.2899043831908252, 0.59659192566701469, 1.2363450944649126, 1.1897359520899111, -1.6867750359255405, -3.8369357251368581, -1.1879043141682337, -0.17520695659641433, -0.91669625651735931, -2.7427125249968745, 1.6844844334867999, 0.51065400358043433, 0.37656165900917787, 0.31432856005169935, -0.79139304643785235}, {0.43783628494032611, 2.2981313329667867, 0.14909594301040929, -0.38340602229469462, -1.5846494947369283, -3.0351241534345035, -0.37893515735284494, -1.1537537604272323, -2.0658251978940285, -1.934209335971748, 2.7651308166704833, 2.3143880357177373, -1.7821892659309633, 2.2466111150406425, 3.0556336204118719, -0.28680624023558438, -2.2723820920608295, 1.481885342008689, 0.38766048687430699, -1.0748713818292885}, {1.9631494697628067, 0.89722639684754502, 2.4637807402246326, 1.2938603508683413, 2.1727179990493339, -3.1074412857683846, -2.136071751792358, -0.72382262090212468, 1.4707236284498479, 0.099659391884749163, -1.1836616228674035, 4.601041321964586, -1.4814504099543448, -0.0037253530556969963, -1.0764124975654967, -2.2975049120630673, 1.0770628663736115, -0.87079377278915993, -1.406861803866684, 0.70913011327609821}, {-0.45978833459623081, 0.4705508508519135, -2.0832865561757195, -2.4915396334563864, -1.3065711745957482, 1.9456494329301084, -2.161130581445545, -1.5234224449792697, 0.47990469972210792, 0.10376240265428642, 2.1714398953868477, -1.0860666685462896, -0.51729358746958209, -3.597680398553972, 0.90691705327596661, 0.80649493160505148, 0.86938394288730492, 0.32188167180083199, -0.34258366270125634, 2.5968175994448126}, {1.4577500250101025, 1.5316327243495165, 0.12454645267401626, 0.5661679982703427, -0.31696338581816186, 1.5145466235921734, -0.68857361023123187, -1.0324456298941165, 3.2151247742329581, -1.4739864782369676, -1.1106380384295631, -1.174607913235667, 2.8514872173950723, 2.0793806357414715, 1.1020875404720463, -2.5855330793734934, 1.9766199602116945, -2.4179108856158016, 2.7174019289554687, -0.055733690210655065}, {-1.0742817507248548, -1.0301269005519391, -1.2775784796736873, -1.8716972517768178, 3.9210878745836681, -1.2208635273478019, 0.29305567099825403, 0.35407585980584638, -2.2315412705498905, 0.55068120542588306, -0.00095474482589275045, 1.4347546622410083, 1.4282755613971851, -2.1850131675916762, 0.7515354684378015, 0.36342370488956388, -2.8019318085330847, -0.70059888223400824, 1.0366543216490207, 0.17038930288089843}, {-1.7540427827434195, -1.7048181965400275, 2.1302280879321254, 0.63764283016578416, 1.2333013516746076, 1.3651211651911077, 6.2670493806474461, 0.80920338436589312, 0.52675485053081028, 1.0532018734550221, 1.2038254201449263, -2.0652394531718605, -0.2568505240244906, 2.8568706470916991, 2.2398584977569094, 0.13483354896477082, -0.0091640061920092494, -1.2404300105275294, -0.12834654228704784, 0.074302304179589232}, {0.363817017135454, -2.1540290601717933, -0.099004719023311413, 0.91250951001265002, -1.5127027104324395, 2.9736315124118615, -0.18301565992460209, 0.0052400795241603869, -0.52173580758253391, 1.67896092261073, -0.12194256643432887, -0.50410461414081598, -2.1829695067564776, 1.4650182260022608, -1.6451488595677648, 0.4851630769857056, 1.015398248889255, 1.101569832587991, 0.44106233803770212, -0.25296360148495267}};
const double* weights_output[9] = {
	_weights_output[0], _weights_output[1], _weights_output[2],
  _weights_output[3], _weights_output[4], _weights_output[5],
  _weights_output[6], _weights_output[7], _weights_output[8]
};
static const double _weights_hidden[20][60] = {{-0.37743475702864765, -0.30716954061856772, 0.53136757386319033, 0.64443514208286701, -1.2877576517784033, -0.7123295560893923, -0.4917739974528163, 0.056934294940124808, -0.19329047431811397, 1.3080681408627071, -1.4841125664463111, 0.049916816437850148, 0.48172997192038081, -0.72263477371120055, -0.41507877925516068, 1.3876544646856657, -0.7120873278932085, -0.12186051191005877, 0.30544267095979727, -0.39623557013604294, -0.12380407833237304, 1.8484666419283542, 0.41794126216984595, 0.074559808240660247, 0.34495635414031089, -0.029608557167836808, 0.036309094250582305, 1.228294593184091, 0.13475707653638969, 0.64248853597221822, -1.1235910367854944, 0.31279394187869491, 0.077422431764956612, 0.59973089999893103, 0.10830986897482277, 0.16316835344442601, -0.60824096253736026, 0.73344705718498715, 0.2346826879328032, 0.8711590888711418, 1.0143684186838227, 0.34190703160154146, 0.053540638519442761, 0.92557538158024943, 0.13808199519760159, -0.51579150012160591, 0.72938018702095342, 0.2884650703150145, 0.42816848841425587, 0.84456371439981004, 0.35602603287729639, -0.3898029345650223, -0.071585614843455631, 0.10856540285974688, 0.6074970146534665, 0.54184612202043425, 0.2144668481545266, -0.68590177392417528, 0.01034721408808586, -0.052149102060003838}, {-0.0023365711894539083, 0.72455130509420917, 0.64655387147608434, 1.8257299291692202, -0.4537156202701077, -0.37774276850102856, -0.72453498983204889, 0.75852230834619905, 0.63894053464688461, 2.7273480283327345, 0.2435913353799212, -0.65095057887430219, -0.27693700326280118, 0.058664000746279379, 0.28659100312251196, 0.91499491285003043, 0.1568227079385367, -1.4887555361914062, 0.078505353546618736, -0.0026809211674102109, -0.66670948971214328, 1.7316240713781554, 0.17458715660613233, -0.59932790974654526, 0.61518989527898482, -0.13025381916964288, -1.4003036194248375, 1.1360636498545071, -0.48337581079617087, 0.028770986537650426, 0.14267304506734968, 0.16174343185458004, -1.5413379973127679, -0.034683231281572885, -0.80580933690984213, 0.9449128058928753, 0.15227572915006954, 0.45424590835905071, -1.676654877101156, -0.36711978962585579, -0.36314841928565728, 1.0424341658304042, -0.10848767473586216, 0.57790301050989756, -0.66484492964432085, -0.55061226327085921, -0.16844500514981614, 0.33644556866520636, -0.15875563932515566, 0.5808913694523915, -0.95780571491366984, -0.60509273042193568, 0.20864338643200525, 0.038302649170373869, -0.011988386169710361, 0.84868440876515827, -0.65820261027580285, 0.2049318764749386, 0.24720193319893952, 0.90578688610483582}, {0.011664588766093175, 0.053177175721542784, 0.98317707364733764, 0.93888411492832446, -1.6056321410442627, 0.50372712151162458, 0.63080421082587601, 0.86204386826241053, 1.0041162602395832, 0.41990728679146549, -1.9235066629296971, -0.18714635161872303, -0.70259667285887573, 0.8232871226463373, 0.99432339062627073, -0.58314894387333893, -1.8169532809448901, 0.12656178264915166, -0.50375831709079077, 0.39663329536939113, 0.14629985788904176, -0.42770280914627695, -1.0692124348311733, -0.34779874710322939, -0.38480148185094204, 0.26440041715918328, 0.041288109636623826, 0.084864446204004435, 0.29285710658481795, -0.51959771904687424, 0.59763393159375167, -0.015608038314986054, 0.055481150696713485, -0.150839023890811, 1.0080793671728399, 0.28485862067032913, -0.13624306578974962, -0.0095511526686986505, 0.4139252071093189, -1.3331406755639743, 0.75930027372367426, -0.37382880207639574, 0.069610723980995298, -0.23462208038085944, 0.2518252645369688, -0.92739918932445464, 1.4676286397589093, -0.19555632275177573, 0.38525969132779192, -0.066240189333774735, -0.19335018484059377, -0.29232769720523583, 1.6837535020301335, -0.14410033872721875, -0.35352655944877831, -0.74040101473104547, 0.42089646539581166, 0.69674807915043391, 0.39860716585054767, -0.25376989664770044}, {0.17545024547419391, -0.10405322421084383, 0.6726709131502373, -0.71738474840767119, -1.5391604930317235, -0.82696405189236077, -0.59610911150352952, -0.63544930509835185, 0.17053167552013679, -2.007837825893374, -1.7853435552183208, -1.192903353230802, -0.45838090380142721, -0.62315947339517952, -0.070037810276852033, 0.41226807160820617, -0.17609121893946136, -1.0583299139125082, 0.47170459497765516, -1.4139707123417453, -0.4950144409752219, -0.67003129378058546, -1.4882541592891125, -0.80614887385014611, 0.26883445711172926, -0.56892205556993458, -0.77163844524347502, 0.1882750406854434, -0.098421076026688536, -0.11306269449474887, 0.48966981178025693, 0.37759931734382224, -0.28904204169814646, 0.20019211843892182, 0.89664974417726773, 0.68900394686636124, -0.2982144790264199, 0.74307893502849265, -0.47421233398991969, 0.15054903538052089, 0.47561954975333054, 1.0964906519503048, -0.05202741099988957, 1.3362139866899698, -0.40857518679750165, -0.10871799046546482, 1.8358052316941276, 0.51570879586806451, 0.1875974860186283, 1.3370107628766816, -0.29826573393864597, -0.41884808484998887, 1.4900361663187924, -0.14795529941215876, -0.14627480832068315, 1.7622064550702026, -0.28103609028986154, 0.035243947053128805, 0.87993346908925896, 0.1306707237091887}, {-0.19657007836664525, 0.78740167257426974, 1.0545140148047085, 0.27611610428213557, -2.1489889375873776, 1.2301902619781029, -0.14282723471608982, 0.94344096368174157, 1.5863462397924031, -1.0463644568017283, -1.5528529033308731, 2.8016286370109187, -0.05353999282290535, 0.26146675845884559, 0.89917625851479122, 0.094367332071130045, 0.059428819615649622, 1.3289641223651645, -0.37439906755480534, -0.70272265182773275, -0.24410611460268364, -0.42234291536175539, -0.52334999099844626, 0.82989448853998926, 0.08862075607662491, 0.0097690245471926361, -0.067864377935839368, 0.41952024827483053, -0.60790671491959025, -0.080938977656856037, 0.10971986979370625, 0.16732180036535374, -0.36937982681958992, 0.42289391012263289, -0.28595374334304768, -0.98146576155899345, 0.47280023189077369, 0.02794487117660497, -0.54264675482501623, 1.17852691795746, 0.81370294471676907, -1.2324020873323982, -0.00067044693200982337, -0.053074632252562773, 0.0012344136023934333, 1.39287143680434, 0.41393334853166508, 0.042030192480086374, 0.088106197542742279, 0.063506564915511599, -0.3111604418151192, 0.28273921087295362, 1.3826060317803859, -0.57454875063007604, -0.022047961953782721, -0.46957855959601696, 0.19889912784369693, -0.52534196146194445, 1.2583008841571159, -2.2189963873451517}, {-0.1060349544428757, 0.85691464093658276, -0.73927839449933974, 0.54190857474509679, 1.7825097490045894, 0.5775028367695263, 0.56992642677529215, 0.643419460362329, -0.93572471488079345, 1.4721879948790593, 1.9976004901358617, -0.51550552958745777, 0.4684836943541798, 0.081643239710214588, -0.52060429407752928, 1.0920826609360028, 0.72361514119169723, -0.81867689815294886, -0.16746638596837118, -0.42043382694482728, 0.9244456727669913, 1.3182028134740893, 0.061726003007549275, -0.51225440812037537, 0.14750246671483305, -0.46815771006756129, 2.1918555040377732, 0.8419968581575441, -1.0475528109036254, 0.43678909561658535, -0.14980211711647326, -0.066692501913433191, 2.5327527450850904, 0.81183577749060221, -1.0349973935659305, 0.40519870309072925, 0.55073505910363252, 0.25780162941993645, 2.9405255813283997, 0.51047291962874708, -0.83998224388810117, 0.31327665111827896, -0.33615715745836927, 0.34845066683936199, 1.1645484064118867, 0.50295398655846224, 0.00011178742694334669, 0.22689200304076867, -0.28563887536739313, 0.097459461283628104, 1.3357724067672809, 0.18773630596334384, -0.45496983188689905, -0.20738372048107037, -0.49263409614670745, 0.38566515092553083, 1.0021323880026232, -0.25654547336142347, -0.47837406978228575, -0.38464445534069269}, {-0.34639386609782236, -0.54529701561280841, 2.4740463667818737, -0.50203575065628125, 0.63294853179590782, 0.9909231930483865, -0.30166091375810811, -0.36695369153746599, 1.7599375353990931, -0.57145343736213228, 0.074931355185561987, -1.020306939237154, 0.14916096396521589, 0.010099675728578275, 0.097335932953367815, -0.11625657118244291, 0.95816648697037887, -0.052211079862550608, 0.39363889005238611, 0.34637281103571793, -0.69753589070063449, -0.31281430532396326, -0.22880965182714585, -0.52413234059020697, 0.10915798525007749, 0.46297233227463885, -1.2159114614750668, -0.29041510288821476, 0.039372375800061955, -0.34630603708864705, -0.10972923684991932, -0.12538044846619822, -2.1544225459297013, -0.68957335025616506, -0.31590207542555154, -0.4904060770155636, -0.010231905863080669, -0.054511113620332716, -2.0771398270195047, -0.51207258727772098, -0.33016829267968528, -0.19476027195158288, 0.067056752547754506, 0.035063727484435522, -1.8801952216416431, -0.35769453970843779, -0.15220295747584334, -0.026017442826781194, -0.29936206352606526, -0.15585388698990887, -1.6120166913293634, 0.41614476740101058, -0.36604642382646596, 0.098709164195753457, -0.1652788789959902, -0.56207326443771044, -1.9151384308607184, 0.73100153293277714, -0.43210350058061148, 0.058157908067304094}, {0.17356292432056278, -0.62831505605662508, -0.72972898916267548, 0.31074318823775376, -0.76861853644071743, 0.11332161901199263, 0.2889714072231967, -0.53786471683116233, -0.12175582505506774, -1.7690497769935096, -0.13950680762476542, -0.25057004359084956, -0.2224067140443825, 0.0088640450252336113, -0.34385776757436959, -0.85347402824536278, 0.035166723368478273, -0.0038180291842766995, 0.033214321026114865, -0.24858090356587711, -0.23356236835766186, -1.1672693086854109, -0.031646130898873054, 0.03218385494086675, -0.75865830352995289, 0.48277613481442655, -0.35375582750432211, -0.42390027852756496, 0.42959143213288115, -0.32058466782905304, 0.082404363594480126, 1.005214386443632, -0.26859148261008275, -0.098724093645165309, 0.19981164605360135, -0.62754908908773066, 0.29861435158762406, 1.1119376876054514, -0.26503502251286326, 0.26730639564460656, 0.29445061206499062, 0.022655389347854247, -0.051591682939940285, 1.2684665462276368, 0.065020490960326444, 0.38871573264984344, 0.21032129429295995, 0.093796093435912345, 0.070037077988059804, 1.2957345845293671, -0.15438612351939113, 0.45625516019984208, -0.19399931328636053, 0.34908187595660428, 0.10267803641383862, 1.2034715091792076, 0.09068062245226656, 0.49039258858523826, 0.2025878111850721, -0.19008673944646626}, {1.6640208287559395, 0.069878713207818105, 0.73813443710798787, 0.30788656357752026, -1.35777942003246, -1.6656243636807839, 1.1588758525253366, 0.47292481597397495, -0.3351330251172206, -0.80862160480688983, -1.2576886754099432, -2.8310251648337359, 0.78838924226419416, 0.076280275094510325, -0.51081610169417069, -0.61023235805484255, -0.88845837080482015, -1.9701779273335427, -0.32503134394770578, -0.66653931703914659, -0.25888142106962503, -0.17494754103227614, -0.10449242270388738, -0.77403945495157112, 0.3075539509512577, -0.45224541075134067, -0.15019888608903062, 0.41143031511369776, 0.038080169185152841, -0.071791193870442208, -0.67083814116349783, -0.098500442178568126, 0.18385511901626689, 0.86717133501066979, -0.58181595060886748, 0.99119260496465067, -0.72966693882564004, 0.093774966721075617, -0.00060329414152029796, 1.991044727759226, -0.36682085163750411, 1.3791057312028137, -0.87176399732464827, 0.45061927203810431, -0.085766022732522554, 2.496929006343092, -0.0040691457884620532, 0.50432414833588668, -0.97228080298915565, 0.67244031013645433, 0.10831838435226712, 1.1211379297142878, 0.60659245217835878, -0.2987051106526471, -0.49157537711603189, 0.9180298652822948, -0.25946337224734711, 0.28193016403990906, 0.92824551958220791, 0.052675896248302177}, {0.2305342205793135, 0.43889745531498098, 0.67874831594869045, 2.4665369997171105, -0.39372573645859316, 0.4722841644134827, 0.81827154710737693, 1.3329633641630927, 0.28523406300177101, 1.3253895503732198, -0.26150303826216192, 0.020975676818394094, -0.038802615143766983, 1.5251845008435303, 0.56225442451039731, -1.1111820548695182, -0.1318893098153103, 0.58832122426299083, -0.12371128586995309, 0.86145872310034233, -0.26552744428811165, -2.0638432163347948, 0.085793997228820057, 0.2390002985342177, 0.035722735605472226, 0.81099428460155298, 0.037776518984939916, -2.1578728374559657, 0.11125657283741344, -0.16397234130352814, -0.034258860060778731, 0.036334472231378014, -0.0025537020527260372, -1.6312124891839646, 0.68343094758332346, -0.2498786533991596, -0.13248518068456325, -0.4927801847154919, 0.12524733283687278, -1.1795106429486415, 0.66813835964599966, -0.29557411058372873, -0.0031948470630536862, -1.2698596496511649, -0.21531327988050308, -0.62482659316950084, 0.49952452019171861, -0.067198396536910732, -0.46170879456911856, -2.1161945179279202, -0.010613613600642224, -0.0018825688688231886, 0.14742208649108185, -0.79492683572243772, 0.0067551578031115013, -2.3241931429927685, 0.25762159977587429, 0.70408881997913386, 0.26750469629518137, -0.15587749073400989}, {0.48700053562253787, 0.19605406911070405, 0.53593490307656155, 2.8101872381092678, -0.42169812631297721, 0.16437354991395683, 0.33806920294290038, 0.15755252498075961, 0.70630982897529615, 2.9761351261577, 0.63321121938898084, 0.02865981958087406, -0.020182563913782509, -0.032112620253398602, 0.85910315606257093, 1.2262783575531462, 0.83905498407648338, 0.025627625718034727, -0.1755794897945594, -0.33429130467701929, 0.43057278422383288, 1.7241519375264966, 1.2871331156556904, 0.22911894620671128, -0.1988782371038261, -0.49293486777782886, 0.10623747605533722, 0.81223957825631665, -0.067788452954235981, -0.064752359729978393, -0.21980949273614481, -0.11986660722029549, 0.011528382556421409, -0.51835000166389633, -0.23425423873386994, -0.43665691517301952, 0.032562397695750533, 0.49154970973438089, -0.55233548563664292, -1.2032421622569482, -0.22401020620011747, 0.25257633235909283, -0.18639846109692726, 0.63374266185205474, 0.31910173212982479, -1.8555323931812198, -0.83567907937466823, -0.14489577324277872, -0.37464043708235062, -0.040127719385759729, 0.089621613755064514, -1.5037263461318324, -0.36605640869567124, 0.60230152728627606, -0.041424312911155024, 0.050352437015817472, 0.37039034987273178, -0.34941374778116269, -1.4443087915431514, 0.40692924051136015}, {1.9709444977699015, -0.14705017654806807, 0.42146274108115556, 1.6010705568186259, -1.668115697774152, 0.085970952219842245, 1.9143127649245935, 0.44426617811129071, 0.26541920420041015, 1.9939105427097761, -0.92632855977569972, 1.9031820136975419, 1.5368179674358837, 0.30695006991555607, 0.83522870225795864, 0.61425810200328301, 0.085478254182815461, 1.2242463273891204, 0.099919834821719747, 0.1857127347154226, 0.77973344157264657, 0.62751763782505354, 0.23617377605638112, 0.50237138472777776, 0.050932515647442465, 0.22192479237245405, 0.02046061197723191, -0.079658862693038832, 0.18061668075900622, -0.21237338275897055, 0.59061472036469331, -0.36967094572625364, 0.095258939924990321, -0.93207556588053497, 1.3008458416210671, -0.13819081976643785, -0.23730568909364266, -0.38917400796847379, 0.029557232335650066, -1.1833634545036924, 0.49975700731263173, -0.16269135327337503, -1.1560794984249445, -0.82822160493756358, 0.24987856199588074, -0.38720137772436353, 0.98138781167532974, -0.095509335541403714, -2.5448378704365702, -0.93905527250152698, -0.23684828509723097, -0.63808054227862221, 2.1066404140450463, -0.45597581228153578, -2.5280772165594874, -1.431130845037087, 0.026609539611102156, 0.062937971618535593, 1.4263499156163526, -1.1190453278508614}, {0.12795974741985927, 1.6670494297973049, 0.8526261664782443, 0.10654800573154656, 1.1050285377591067, 0.39785228751951651, -0.46579950249551139, 0.958144419908176, 0.26341836422461451, -0.093180019875414868, 0.99580264546883335, 1.0545032667565883, -0.1472131831552104, -0.017749572182306564, -0.14341930633045322, 0.25759751268704245, 0.41103534569676353, 0.24800219751896688, 0.070533570297124454, -0.79260180643299483, 0.40096686177915952, 0.65602093313219045, -1.180390869392876, -0.50332832081914758, 0.22844118696365887, -1.0168248609998121, 0.53946323441090382, 1.321131393298951, -1.2787650138454674, -0.43413270345941096, 0.30918624953560248, -0.68862799524574414, 0.34617762252894613, 0.92956083204264894, -0.52418630856636983, 0.079614430614878912, 0.016380491666589003, -1.1078104589480373, 0.41270369112876476, 1.0122964889175334, -0.014773089673909227, -0.24873123185371918, 0.18631065333017693, -0.84490210412830269, 0.40230224929529756, 0.68286541989844407, -0.040773821810866945, -0.20295132215362197, -0.17393859725915553, -0.8763471678504946, 0.44035094528263652, 0.46177059175907081, 0.1902096489628699, -0.021773003925379678, -0.070110283642954824, -0.59566872169566465, 0.56586989114857955, 0.31227173680976927, -0.1239353630905308, 0.096433066203463494}, {0.1414403795336624, 0.039299029840277104, -0.63001376648193474, -0.038396356841841631, -2.14099545521207, -0.01768005244183847, -0.17878555521248524, -0.32596247386257388, -0.39191126077891775, 1.3491834341678535, -2.3416343507433557, -1.833705924380358, -0.16712369687303458, -0.70906054604477364, -0.16482169188979739, 0.87818190655376183, -0.67333545609705248, -1.5211935490896322, 0.1260434168414048, -0.48782688944522978, -0.2250825184205687, -0.14329563635255144, -0.4520780692678314, -0.56917058947623222, 0.17296389073676036, 0.19603382075966294, 0.83559191756099194, -0.72234307538538045, 0.38667663926104412, 0.27522930868900713, 0.38656249138699655, -0.031821117684500147, 1.4950562909259464, -1.4724650637240737, 0.60994186381146853, 0.56889154705551181, -0.52384286815542702, 0.4950521674576826, 1.4210273798058306, -1.2614857278396279, 0.27524539246864393, 0.69691528253373103, -0.46434981965459482, 0.55270166151633493, 1.4171086106701709, -1.1582813947101394, 1.3372406162345005, 0.026060439463612885, 0.013374443651308679, 0.14533385233190674, 1.2001674633158546, -0.47444273665235825, 0.98658247563977786, 0.070046780692757771, 0.59789525577622182, -0.19856291074562696, 1.2480238267315298, 0.40671622845672156, 0.32597634170896755, 0.50290255203318057}, {-0.043747058050750236, 1.3687626429131641, -1.4913354272409105, 2.7252304098428057, 0.20238818483206392, 0.13046538480065364, 0.057874433559543331, 1.4206725156786535, -1.78780713152632, 3.1384584039187802, 1.1484826288519303, -0.40381825596279353, -0.29806763012847554, 0.75912289588481097, -0.98629623423967172, 1.2847941583010063, -0.21507422139122692, -0.57899124856462736, -0.46109302423578236, -0.23957882007025039, -0.98322199853092596, 2.0539336813936524, 0.022574545158597501, -0.47035875426435758, 0.35929892204675512, -0.24835558577588279, -0.14318567991393225, 1.3724240834360917, -1.0725207473419609, -0.21885692769589904, 0.10663053757223309, -0.50743401092057816, -0.43152579052023599, 0.32261417404371046, -1.2373433394691842, -0.099071504167078162, -0.064854308926027351, 0.26226971943172389, -0.051082883664525819, 0.0091488495663442568, -0.69750621965800652, -0.35642522755256184, -0.01384568950776726, 0.539455711490614, -0.43849243689327649, -0.79634437393375501, -1.0074612610891003, -0.29837479891786012, 0.07899261195848252, 0.57406935634361067, -0.26928430951316862, -1.0614609008854772, -0.77904231015182024, 0.22507685650579437, 0.38590459654553749, 0.33946890540040098, -0.085443746648347391, 0.058303648873223521, -0.60675724054428182, 0.20520247621218557}, {0.071226033297776978, -0.21257081888422988, 0.67421946931971843, -0.31683610755302594, 1.7013785115229205, 0.53760921941693041, -0.093598742789204034, -0.27708996685444309, 0.62767450020992854, -1.4538998063311057, 1.6172924104076825, 0.69636046053801792, 0.35359306450042893, -0.55378669427122162, 0.78264766079113746, -1.668854625935948, 1.7736771487886882, 0.53097748201669537, -0.0085621293867212712, -0.12324570390552382, 0.26919201252335767, -1.2244303164498711, 0.52534814185381551, 0.47554389456085305, 0.0078641903373483091, 0.26998115073255502, 0.37279691538043291, -0.78208452343026569, -0.38790061236864432, 0.63763146675582261, -0.22201746306597339, 0.51416536723323303, 0.0011964469712926436, -0.57950882371249568, -0.34096750157388167, 0.047954069396827385, -0.47574834239692299, 0.39197218352859481, 0.075373834288314415, -0.83699149962053454, -0.45725344853835043, -0.09861949315263939, -0.076240985677562545, 0.48570818391833903, 0.064552844463007436, -0.49282775338766621, -0.077183796484330297, 0.31558194798135963, -0.41858290763160338, 0.29365449160967283, 0.29540321372770595, -0.02777242961366044, -0.78229343620454261, 0.3406522243587406, 0.15102192598880129, 0.19552993729682852, -0.15942753998578438, -0.16673994322124866, -0.40722842436046131, 0.052166818816728924}, {0.0059621229381581859, -0.091932683131907486, 0.82579297289817344, 0.69695546146984322, -0.45202636215002345, -0.9701583727171107, -0.41706053070560395, -0.079702761440885658, 0.10386310583899586, 0.095799608851615217, -0.34607980953772521, -1.8678031082846365, 0.026353176650419953, -0.42691429412628695, -0.34563520594922614, 0.17421894166394331, -0.24903666093479837, -1.2008757607609093, 0.59417483791614245, -0.032700459093205868, -0.063412798317249483, 0.69071084516804004, -0.10683968752774721, -0.7321269972301413, -0.24790285857314831, -0.36073705522747329, -0.30198607852739223, 0.94718038305221197, 0.29053329475988615, 0.1776420755505202, -0.096757471406294246, 0.027513385037345572, 0.064745276294206358, 0.59911472874560601, -0.19656919679036999, 0.65534677054951163, -0.097940133287362882, 0.27237967019634085, 0.36184589978080145, 0.79772199923237108, 0.11635692824901948, 0.76644010012406028, 0.24602575026185033, 0.031010564478166365, -0.60149257609041651, 0.99284459401903424, 0.086654616448157751, 0.18915059496285663, -0.035629596900049944, 0.34489644548364284, -0.14672975562980475, 1.6222495807502491, 0.2115056374109108, -0.39888297085970859, -0.0054376430908464933, 1.312216685898395, -0.38563565275996253, 0.23547095176165553, 0.63174633159952287, 0.51719176336371209}, {0.077637270197949082, -0.55263944688786204, 0.075238245439200407, 0.10533195825989204, 0.18727896512966713, 0.42105643918784808, 0.16081064799381062, 0.043447965309002037, -0.064001830903474333, -0.0063683242606377794, 0.059689506712246494, 0.088784907589100057, 0.093057767813297471, -0.17634890280332136, 0.33927670195064175, -0.031470372990059295, 0.22277960896931776, -0.01105866993084011, 0.066491617927715699, -0.0072218217546545834, 0.20050407323502789, -0.76278127586908351, 0.23263214059441817, 0.24411918865857851, 0.28268711346914127, -0.088837714785937258, 0.14954243808359277, -0.52217984388827698, -0.21749491117100214, 0.092135281864704349, 0.53807460836616428, 0.033894769367940815, -0.25231182952884496, -0.15469111149588488, 0.088955467013044215, -0.14240006043180686, -0.43591204585449322, -0.158412663641924, 0.011371175462238692, 0.018018011089209831, 0.012887720844539832, 0.047803091010574249, -0.45424566725070203, -0.41825899659588622, 0.30535508273364642, -0.43070240659820053, 0.19732217931568061, 0.027888454752695239, -0.58535360842351314, -0.31706988956863874, 0.23685124071744437, -0.36328539975199559, -0.31875282399764654, 0.51104990435897735, -0.25029708537388068, -0.26805981859379036, 0.094549557594089464, 0.28536231176493776, -0.38522657456436371, 0.20133713190921892}, {0.91100264108548312, 0.2203836445673549, -1.1334545831998368, -0.15607127667310974, 1.0073064217726451, -0.06736478222474826, 0.72699868195047046, 0.040429325305217576, -0.6150107787204343, -0.13918301000027969, 0.274746699399395, 0.15179334966678609, 0.62131668187436606, -0.4293548814428686, -0.25275215260111317, 0.23837008013425137, 0.40276764809624804, -0.019700608091210204, 0.048393024038739525, 0.035959516906700413, 0.068038885006741351, -0.1022907095507319, -0.46999348889920517, 0.29560438352711582, 0.63942976562894482, 0.38558825836569216, -0.079207382086051964, 0.15498712762020064, 0.12091483143649799, -0.095132988622437603, 0.065466060830809372, 0.51733424495995872, 0.14902811257378668, 0.16988854545417184, -0.30538353219054731, 0.059240832336468881, -0.34787087794138571, 0.34360559950934327, 0.59998585622263123, 0.19979373276579934, -0.062910521029895028, 0.022311604477343424, -0.36853227049866361, 0.25211566295360771, 0.57440803063212198, 0.1061048212612096, -0.30969328412277314, -0.099121790984461555, -0.65792640851642936, 0.42547528831850551, 0.68573167058291518, 0.14242436090043251, -0.56542182982298972, -0.18279897466563741, -0.17639182675876644, 0.97411907741129433, 0.22477221423679231, -0.1393863337943185, -0.57370417518768735, -0.077815849182599844}, {-1.5385997875447575, -0.24314334213951316, 0.34439465626042709, 0.50790024105770948, 0.18161011294045099, 0.26649482716294165, -1.7083220276754745, -0.51843025810395404, 0.37008179928645596, 0.41559502799521986, -0.3105585170762144, 0.11891584944053941, -0.58066541173452679, -0.49480931712323939, -0.021737992949792805, -0.15193273777616154, 0.22891509866573082, 0.36860514594171367, -0.4641984468219485, 0.28659476059073807, -0.20054970133084546, 0.48052724448900952, 0.98028667918097101, 0.011706047361036379, 0.22366636581795832, 0.65968532036502736, -0.2288507606070537, 0.56163530729330435, 0.63942678950421294, 0.8447996014301975, 0.7764257184329395, 0.94290808688351224, 0.41941471875213249, 0.32764527733321586, -0.15791792562729381, -0.01469953786686287, 0.76435467580474703, 0.44531627253983003, 0.31168388938388053, 0.46086059955264064, -0.25006140106643848, -0.58273285989521073, 0.65441508953165373, 0.53425373434198253, 0.24331289614692397, 0.47795939943197208, -0.61393163162833875, -0.40602928925396253, 0.92487160778652855, 0.40676963999476834, 0.29070990945957298, 0.40915485905271554, -0.37458094778978068, -0.26687731575481011, 0.8493250076082457, 0.24239740690398506, 0.50584052401924362, -0.39333340971983488, 0.22087452980162692, -0.81932034180500612}};
const double* weights_hidden[20] = {
  _weights_hidden[0], _weights_hidden[1], _weights_hidden[2], _weights_hidden[3], _weights_hidden[4],
  _weights_hidden[5], _weights_hidden[6], _weights_hidden[7], _weights_hidden[8], _weights_hidden[9],
  _weights_hidden[10], _weights_hidden[11], _weights_hidden[12], _weights_hidden[13], _weights_hidden[14],
  _weights_hidden[15], _weights_hidden[16], _weights_hidden[17], _weights_hidden[18], _weights_hidden[19]
};
};
